-5.143459840900977298e+00 -3.043429951028020941e+00 1.598910343977834048e-01 1.128115571603185208e+00 -6.410320512425096151e-01 -3.803320989240701611e+00 -3.563276190063784377e+00 -4.419936358287476219e-01 -4.725086044226767812e-01 -1.784598738863319323e+00 1.832711046325471216e+00 -1.924375012715579536e-01 -1.275673863700840016e+00 -6.253732596942405131e-01 -6.831156229345760611e-01 2.279613758854585281e+00 -7.220815626049407188e-01 -9.029092759930077913e-03 -9.051504095575022557e-01 -3.916609043301068294e+00
5.980097846016522389e+00 2.897830888895570389e+00 -2.899766674987645398e+00 -4.527902926586058641e+00 1.135633899330563690e-01 1.538293103155363051e+00 -1.180994710561305450e+00 -5.159448214463235871e-01 -6.934585087867576325e-01 1.678433791426674038e+00 2.222382073178027273e+00 -3.718762507418880148e-01 -5.589945843267299930e-01 7.771066393733658817e-01 3.295402287990866763e-01 2.140589742396058259e+00 3.985755226402601381e-02 -1.151568336260089670e-01 8.834420804098637170e-01 -2.108221870216053340e+00
-5.490677566706312795e+00 -2.892094834206936138e+00 3.075217818913756229e+00 2.890937907594832268e+00 -6.224245240491693698e-01 4.784124453207048155e+00 3.948737305731144343e+00 -3.998822750105032187e-01 -5.886438057990711625e-01 -8.692020143954892752e-01 -3.628567601762297201e+00 -1.268766617614806025e-01 -7.387198679675689439e-01 -1.325487173209613845e+00 -5.252731842700721909e-01 -3.775046987024787359e+00 -1.286809344553303758e+00 2.754386893018573867e-01 -2.666072282096030310e+00 1.016258642063326167e+00
