3.710321858988816945e+00 -4.516838438512107423e+00 3.676133032291641900e+00 -4.094595712925240605e+00 1.522474789811775508e+01 -7.678299677187090388e+00 -9.508649603441718057e+00 -1.018511085734810706e+01 -6.332810555206036085e+00 -1.693748299291306436e+00 -2.690856210720191211e+00 -2.013060985205674225e+00 -6.460713614741591115e+00 1.025720875244340569e+01 -1.855906285006700296e+00 6.190015571231862523e+00 8.803987992026875986e+00 8.352784694631422369e+00
5.236093539916476303e+00 -1.791806994966828048e+00 6.625023255060116245e-01 -3.750203995687114489e+00 7.139623060902854590e+00 -4.455512833748874968e+00 -4.580715088944105062e+00 -7.722483960338299980e+00 2.882876316074890255e+00 -4.034580742095594807e+00 -5.015544825019873976e+00 -1.633393429385838758e+01 7.989585332752190183e+00 8.901838376134705300e+00 -4.973286295320471062e+00 1.159227912146319345e-01 3.215549057306926084e+00 9.981439235228471318e+00
-2.185448335627079519e+00 -7.283282019132291119e-01 4.309514512339547743e+00 -7.144103266614460601e+00 -2.853105734150452211e+00 -6.290260707612309155e+00 2.746010699881716310e-01 3.586255566692085672e+00 -3.059555368228012107e+00 7.962720203914674943e-01 -2.649671791468281690e+00 8.988411878206658656e+00 -5.140430829158037618e+00 -5.457802387342036710e-01 7.728095832254630260e+00 3.084230688660461350e+00 5.231248650634866770e+00 -3.187259894638043711e+00
-2.386539704586843502e+00 1.182028208095249999e+00 -1.011102950227848352e+00 1.124775120809550089e+01 -2.171965355855050905e+00 9.303955759610172960e-01 9.125744684287051101e+00 3.398611859288708459e+00 -8.170091489891916581e+00 -4.786399733766192988e+00 2.624279577214014392e+00 7.476987019602987061e+00 -4.795618694394803150e+00 -2.333543599730812934e-01 -3.221122504381703222e-01 5.686300121783873784e-01 4.133876251706319671e+00 -2.146717928949355425e+00
-11.44154371
1.215255442278686537e+01 -2.839420767540768153e+01 -4.405325143900884477e+00 -2.624043055654875722e+00 2.674383283481347462e+00 1.095882987704288780e+01 3.851033718802764572e+00 -2.809355309610234386e+00 1.400113287107721405e+01 4.639832805542328131e+00 2.875739093939109647e+00 -2.686686158348760234e+00 3.786330814243831888e+00 5.915344472464653669e-02 5.895153784072295622e-01 1.646037076429322710e+01 -1.342047243910780674e+00 1.781582292061492367e+01
1.743333494553947149e+00 -1.632843627290530009e+01 4.976266258362447736e+00 -6.245155855991660898e-01 4.688649679727325825e+00 1.135740448560539129e+00 4.346582863492318261e+00 2.492744745569655418e+00 4.417133126495138562e+00 6.461481455010567920e+00 -5.551052854723771190e+00 -1.565785909710260548e-01 2.954236294909443838e+00 -2.211638510647646161e+00 2.261376913609347561e+00 3.007972915995695384e+00 -6.268128431890410690e-01 -3.927757205566203336e+00
-1.564345571497088194e+00 3.126225554974378706e+00 -2.364100373951230627e-01 1.281950111440868234e+00 -2.415769626565651862e+00 2.349790148168270143e+00 1.798263131411733662e+00 3.879430707612404383e+00 -4.167998933949874085e-01 8.761857944176913993e-01 3.143766400614435574e-01 4.429013689196360737e+00 -5.713160295683287204e-01 -1.518783723337888414e-01 1.526899135657086681e+00 -1.451915016714606932e-01 -1.229998059121591325e+00 -1.847967027150960506e+00
1.100140714495272398e+00 -1.017232620388689446e+00 -3.848206162841658617e-01 -7.708033231983865141e-01 -7.675416607408431791e-01 1.245548345053588246e+00 9.510375333466568326e-02 8.435570368839405697e-01 1.594983700634867496e+00 9.464619228942779960e-01 -9.142548775389045534e-01 1.866977145556260265e+00 -1.169917729292737851e+00 -2.829055491295410785e-01 -1.403328909621427978e-01 1.101575974649919853e+00 -5.739713180305421325e-01 -1.148305273667046995e-02
1.301580217817230656e+00 -3.180390616718368868e+00 -3.782924966919166271e-02 -1.733153081856192879e+00 1.127440366958099904e+00 -2.054194529437070038e+00 -2.184600135340070359e+00 -2.986864937026982858e+00 1.421587234992814475e+00 -4.855256506612963818e-01 -1.062045644363394326e+00 -3.839787765978992962e+00 5.927389793735702295e-01 -1.117309280599999288e-01 -1.383949872438045237e+00 2.423649991708668738e-01 4.136725946725575143e-01 9.993092772321048312e-01
3.673260957637366708e+00 1.038193141070267700e+01 2.475419756948110450e+00 9.631120851309921127e-01 4.836443312886065549e+00 -3.634023276965682836e+00 -7.087588473944480327e+00 -3.355647484796100866e+00 4.856143530645892881e+00 4.916412429200558987e-01 -8.029452142673040305e-01 -3.406215710635657867e+00 1.911242385216324058e+00 -1.535454669565226471e+00 -3.359834684462206678e+00 -3.070944691242718960e+00 -3.087201521822149353e+00 5.641361254123863356e-01
1.805396800729389017e+00 -1.228550721671531010e+00 -5.898692052500288385e-01 -5.428529471186965827e-01 -2.047628913739616141e-01 1.448703228392465014e+00 1.432442534856374627e-01 4.531531420616682349e-01 2.654572284257945114e+00 1.111624269000505594e+00 -8.826374466940872798e-01 1.499181946477336158e+00 -9.534572354704057284e-01 -5.869298804132557779e-01 -4.290436879046768404e-01 1.499021932864531337e+00 -6.860065742980723247e-01 1.820963204083040354e-01
2.362049375791439032e-01 -1.780149452387054909e+00 -6.916726738399477936e-01 -5.372942981896016157e-01 -7.681604952485873161e-01 3.178232098708471676e-01 -2.594456132625927447e-01 -5.020258041078513589e-01 2.088812330948637275e-01 1.479232941001334956e-01 -5.903285434825525924e-01 2.324375539003358249e-01 -1.361681921390455408e+00 -2.160364035977909158e-01 -7.937853674634403056e-01 3.032617370430521486e-01 -1.056937853193114618e+00 -1.665933447242694820e-01
-7.138778199268630553e-01 4.770813018379878034e-01 -2.496398476076229778e-01 -4.138101883036076067e-01 9.691730724836590261e-01 -8.276833137132419971e-01 -1.507568101414505257e+00 -2.259592436119516545e+00 -1.174677653884693918e+00 -1.924457825641469944e+00 2.001521293183197714e-01 -4.000519201818163673e+00 1.537216580060235982e+00 7.017725618605390459e-01 -2.172172555084055823e+00 -2.388653156135989608e+00 -9.690521936728008212e-01 -2.353533314076460270e-01
-12.24090368
3.298340423275359701e+00 9.478125086653625075e+00 2.198644372320348594e+00 -1.989409124236498072e-01 4.343876513744206136e+00 -5.091339865780181384e+00 -2.950598763769424426e+00 -3.647182314951323612e+00 -1.383945815508949684e+00 1.435641088753802697e+00 -7.741200201563042782e+00 -7.094817166672368280e+00 4.845371382678198557e+00 1.154531635272523005e+00 -2.001184505599432839e+00 -1.214359663533374434e+00 5.307079969307396894e+00 -1.213961909075957690e+00
2.601147006825878516e-01 -4.817234941676957760e-01 -1.114620241537618739e+00 -6.816056151255825979e-01 -5.348236895648736944e-01 2.823961712872030128e-01 -1.316366020292657035e+00 -1.005155067335023356e+00 -2.980465006263135486e-01 -5.265781098848978381e-01 -4.773752688180796788e-01 -1.364286467834922023e+00 2.248425987033903298e-02 -7.639632723151142113e-02 -1.769476371205354504e+00 -7.347567290159446873e-01 -1.256177691331993307e+00 5.888980633042798507e-01
2.298483262012541495e+00 -1.493281244518269490e+00 -4.863544432881660717e-01 -1.364789559443291500e+00 -9.203906308696983007e-01 1.707227822808164097e+00 2.099078072178926502e-01 1.146788132973254548e+00 3.776166876363713065e+00 1.519352941030869708e+00 -1.125137004590300860e+00 2.919666789295156217e+00 -1.399449825716536422e+00 -1.145263997753869445e+00 1.310924561678964706e-01 2.546081438739889347e+00 -4.283248174682688370e-01 6.812848353812595015e-01
5.902997311297503158e-01 3.051663649305778936e+00 -2.394367373327679349e-01 -2.396092335643252580e-01 4.242892043756043008e-01 -3.223623165156692671e-01 -9.780492518299904736e-01 -5.198971859247130123e-01 2.641817563799469526e-01 -6.405260794729076279e-01 3.873210838911843590e-01 -1.300599640794866563e+00 5.593313754106647995e-01 2.486030486354617597e-01 -1.080440437042625712e+00 -6.985274038001839658e-01 2.534557042204536037e-01 8.017082696323684088e-01
-2.190186001521656767e+00 -1.151105523810014475e+01 -2.139644674003923441e+00 7.607068773308396370e-01 -3.775311733675525083e+00 5.082441772274577829e+00 6.509513424117729485e+00 3.872190433415034327e+00 -1.471872952723289441e+00 -7.911848181899201471e-01 5.555272621324945703e+00 5.627514644353547091e+00 -3.772641204960388794e+00 7.196820296492353330e-01 2.346744551123657985e+00 3.206370076122507573e+00 -3.140137501525011476e+00 6.800288311949450604e-01
