6.055889519141326005e+00 9.722731905470384461e+00 9.484768978489238611e-01 5.010285389221371233e+00 -2.516991979431658866e+00 -2.433982015471355176e+00 -2.091578483430346580e+00 -6.016041847752079397e-01 -4.591205691625849461e+00 9.673385075397800126e-01 -2.009397526031987624e+00 1.464378265435106741e+00 -4.936052097573265129e+00 2.998997133850878072e-01 1.328098364970216938e+00 -1.369201561006469614e+00 -1.591662523506264471e+00 -1.554531881915947045e-01 -1.212353094087864069e-01
-1.737838693880922269e+00 -4.545593803862423954e+00 -1.331523181551552915e+00 -1.907395009809596198e+00 4.164184667931550843e-01 7.516336366230530475e-01 5.536313192630502034e-01 9.136193691398060146e-01 1.576377611385125777e+00 1.297167613358928495e+00 3.222417947536762028e+00 1.219734480335573412e+00 3.926967395209904232e+00 -2.039821459021889716e+00 -1.837097479942648937e+00 -1.122016476237338856e-01 -9.302003216852763323e-01 -5.102757980219940759e-01 -1.081028422969831704e+00
1.070226484556129565e+00 -4.006638383591368813e-01 4.311464594462770528e-01 1.277453924275424813e+00 5.459435357640629594e-01 6.528877946207040095e-01 8.127307737955564715e-01 2.806096817902261065e-01 1.262056150444949898e+00 6.544263484206060966e-01 2.862762434576391346e-01 2.331933488955225398e-01 6.109781378245067174e-01 1.129178431801389992e+00 8.191450667793713780e-01 8.381515068496687704e-01 1.986662375328267921e-02 5.791110154812200150e-01 9.178548459800307535e-01
-1.723611912412775737e+01 2.496288470181239560e+01 3.570200991371860422e+00 -1.048731030711532775e+01 -7.978575378351513869e+00 -3.706129100436081014e+00 -1.011342804280080276e+00 -2.499265979266893645e+00 -6.867102262083573549e+00 -1.659393434999803407e+00 -1.195711822770425092e+00 1.252679706840686613e+01 4.530778895615792945e-01 -1.050555856188805670e+01 1.715526656971981589e+00 -7.088264897256852493e+00 6.557979989440421598e+00 -1.201650274014843056e+01 6.616058944204063152e+00
2.102350250674400289e+00 -4.177562530960596376e+00 -4.182711655879325918e-02 2.528319553732039981e+00 -5.510528777840190129e-02 -7.306601507346881519e-01 -4.355152310141485739e-01 4.159712401801644255e+00 -9.837348236701860538e-01 1.047744679943510837e+00 7.689643951843898595e-01 1.237748435044922074e-01 8.719674659680477502e-01 6.278141873916619486e-01 3.330270755607392386e-02 5.383729832660547610e-01 -1.848811440611889623e+00 -1.586709678858662986e+00 3.668115666851629736e-02
8.140393242679273555e+00 1.322633578683966959e+01 1.898636143456965852e+00 9.526948475068547140e+00 -4.976699536282415792e+00 -3.967958986134930477e+00 -2.946532581638742432e+00 -2.352243997456795910e+00 -6.270781409622836478e+00 2.823307812462634292e+00 -2.610984902266872965e+00 2.395078324087435817e+00 -7.311713323981123835e+00 6.356086217915447589e-01 6.528826407732529757e-01 -1.879666595026731502e+00 -3.701119903887615692e+00 -2.886910950869117531e+00 6.099298060621205497e-01
-1.384892762985809433e+01 2.034670908163440650e+00 -6.008656177249697139e-01 -1.260655893417720641e+01 1.712968056214127399e+00 7.011470877459328399e+00 4.239554111255332103e+00 4.709337352781214570e+00 4.199995871412550486e+00 1.357744049123620789e+00 5.498194429238224323e+00 3.108927337967660964e+00 8.347397915021678827e+00 -8.149932430260118821e+00 -3.340793331659049681e+00 -3.741124209332045147e-01 6.598779527413006996e+00 -6.078355178919331303e-02 -2.802141180692645062e+00
-7.075092747708685792e+00 -1.192838918363477418e+01 -1.415531266507277897e+00 -7.506467134578971745e+00 1.329614393451927334e+00 1.308999579100652344e+00 4.581920200574502111e+00 7.467999914083961244e+00 5.688011545914487321e+00 6.207095247913797742e+00 7.350683933921655644e+00 4.247131158686334729e+00 9.737189662570953530e+00 -2.882286474857064018e+00 -1.790200913926436321e+00 2.117599592681390863e+00 -9.522551875851438252e-01 -5.181796535796259207e+00 -2.537695569546686070e+00
-2.649103649961068729e+00 1.601328082812082831e+00 -9.356288444224769574e-01 -7.786946104982000350e+00 -1.772929661644982335e+00 8.031004474079143307e+00 5.817791453535853030e+00 1.545588985152095640e+00 2.529602981454069255e+00 6.484749670249411402e+00 4.873695814033225382e+00 3.428809658062634380e+00 5.832995719507017895e+00 -2.604910479130904122e+00 -7.040298248284910798e-01 1.854623948710328873e+00 -3.017658886832350618e+00 3.435700137231931350e+00 -6.156360616909349659e+00
-2.475077507302930524e+00 6.002154343568256500e+00 6.653704999507918938e-01 -4.288592944650949090e-01 8.604344170758825017e-02 -1.903430113839938320e+00 -2.690718610941951194e-01 -1.827293398271265801e+00 -6.477846728510193719e-01 -9.317198552840801895e-01 -1.848529566648935418e+00 1.232397400397258619e-01 -2.460730453936851081e+00 9.039984271670216120e-01 4.670267428154801781e-01 1.330527889005828635e-01 1.803098496257719674e+00 -2.360300197823021140e+00 2.941351609371073650e+00
-4.680450070063087331e+00 2.654820866917877442e+00 -3.443246718937416073e-01 -1.021757546793193683e+01 -1.573203822256350248e+00 5.247971764270271677e+00 6.409997441110577121e+00 6.128301787463220629e-01 3.142305838565922382e+00 3.775017461590742140e+00 3.295604494646164451e+00 1.102008272431557856e+00 4.187079750298337011e+00 -1.429232403791567352e+00 -3.200710576678276187e+00 2.096367367617809840e+00 -7.771818534712805759e-02 2.411910129149970050e+00 -7.679387129783208366e+00
4.647339760784220175e+00 9.360390438770162191e+00 9.491180434474520977e-01 3.694228840319902396e+00 -2.513733341328667770e+00 -1.240704592718042010e+00 -1.766456676605278941e+00 -5.120214028482886759e-01 -4.577920529619142087e+00 -5.478878922107018878e-01 -3.212262559341448220e+00 6.618394457455908375e-01 -5.903700560139352405e+00 1.610311335138870037e+00 3.100555367299266063e+00 -9.469611478761504886e-01 -5.121634551134920943e-02 1.126229795939720280e+00 7.064760546868136259e-01
2.525649438482752274e+01 -3.149385634582290550e+01 -8.534487918108153437e-01 6.472296334950724095e+00 5.621972518863061374e+00 -3.719314463080664712e+00 6.388744934553390875e-01 1.236607311394709008e+01 1.113301782111165750e+01 5.686282590927714820e-01 7.302856926446413155e+00 -5.604565580297242278e+00 4.162996908041633581e+00 7.981870415313383482e+00 -1.413144728419244522e+01 6.550938684262617606e+00 -1.243745616089506179e+01 5.091014399520711109e+00 5.167932918448516766e-01
-8.099746282756692395e-02 5.189693798887543563e-01 4.294586563388130274e-01 4.918214451386624941e-01 5.139447071521580090e-01 1.513933663828569975e-01 1.043122073536402850e+00 3.671734619596938032e-01 1.117465628165615010e+00 5.915618345339624939e-01 4.677095243457496387e-01 1.445477708671756012e-01 4.194211267081958128e-01 5.884797897700548841e-01 7.797852476596631721e-01 9.684641812285034179e-01 2.489542128098662654e-01 -1.700916962984156122e-01 1.004870636227393144e+00
6.705278901666513747e-01 -2.912982910731278796e+00 4.427219977115748328e-01 1.006932975742897796e+01 -8.929808577492989174e-01 9.828611810002769733e-01 -6.300642588261678334e+00 -3.554866237383480065e+00 -3.834715707338368862e+00 4.113866739546333529e-01 -1.507751199666287789e+00 -2.996926666949432660e-01 -2.240376012321392274e+00 -9.349229289311750124e-02 8.688277602745781536e+00 -3.493596188355623244e+00 -1.973506394856383350e+00 -1.849216243056482245e+00 9.416076910759105800e+00
7.947546338324709581e+00 1.123829005491444200e+01 1.040485121558329062e+00 5.839102849039107035e+00 -3.431174403073454560e+00 -2.036135802836921194e+00 -1.867628531630744604e+00 1.270425411793656867e+00 -6.195334329369709181e+00 2.472826497268506840e-01 -3.001755381161549163e+00 2.087969133508869035e+00 -6.183615132868723663e+00 4.923674072792691980e-01 2.119218557617047693e+00 -1.564902963300217831e+00 -1.401561029174556827e+00 1.907546480210944084e+00 -1.179990231830077008e+00
3.404393336805378922e+00 -7.914570219548886953e+00 4.391889983988646051e+00 1.275796619750594552e+01 2.846545229047023340e-01 1.551247878497534538e+00 -5.389740704369029523e+00 2.138759809278458324e+00 -3.350178886365729802e+00 7.561020601261697616e-01 -1.569830845874930159e+00 -3.795215120537853704e+00 -2.774786017859043774e+00 3.639687548309569198e+00 2.289179011073549042e+00 -1.118097174095792345e+00 -2.872064816479475091e+00 -3.676719699962587296e+00 9.658691773115174684e+00
-4.387023932865418696e-01 1.955392085143390135e+00 6.213956227683282707e-01 5.604947189719446943e-01 7.438554814288529382e-01 -2.563420006846040336e-02 8.396712752497212939e-01 1.843672690658706703e-01 6.455109581471083491e-01 4.587097318387804434e-01 -2.594896672981537589e-01 -8.741979286730913734e-02 -3.842781104584288565e-01 9.233305630769000905e-01 5.719534006230138079e-01 9.328024481161262260e-01 7.244085022457509293e-01 -6.081532254923978087e-01 1.036790976351926075e+00
-1.769871004705507289e+01 -2.248084020024021257e+01 -4.897198592409657714e+00 -1.635274277669240561e+01 8.197885412301653574e+00 5.516878881307769156e+00 5.919831288422169990e+00 -4.864726899238099200e+00 1.254460216559049535e+01 -8.746574637941794891e-03 7.327609857423374784e+00 -5.952808691790345996e+00 1.380768938168430182e+01 -1.909590148707249968e+00 1.450848166665140049e+00 3.880446137931524930e+00 2.637215689869318425e+00 9.843858887150409853e-02 -1.573065128040872507e+00
-1.380291465999901046e-01 -6.680391868354610407e-01 4.729585468563838879e-01 7.608504760005051493e-01 5.248995496677977268e-01 1.200987194344166786e+00 4.832504747432415093e-01 1.998008280706187745e-01 1.032614147253010817e+00 5.531789871090654342e-01 6.694048374685963587e-01 3.608591360478319299e-01 8.171681234904902835e-01 3.326595665194175266e-01 7.215131948987182353e-01 6.770448584688260052e-01 2.210477427227961200e-01 -4.188452717762033289e-02 2.831927292735934576e-01
