7.043038382302274636e-01 -1.351049691218593196e+00 -2.866599659395857813e+00 5.347217883752640510e+00 -1.627074698001443220e+00 6.484258643889569962e-01 4.122653974727480630e+00 -5.790723648941435986e-01 2.513462051272177256e+00 2.346791375415212266e-01 2.179622001776406748e+00 1.606646996037370601e+00 -3.882402367574002255e+00 -2.207104365426172610e+00 -2.565254453129895751e+00 1.285992249538459919e+00 -2.030586641472531539e+00 -1.535075187240342753e+00 -5.355908456331250456e+00 -2.378220094739348145e+00
1.817130723936732917e+00 -6.244881356774579784e-01 7.473149283305564883e-02 -4.627077265212498958e+00 2.997248465613719381e-01 3.266581921219296358e+00 -1.567249577571129482e+00 -2.759804463279625253e+00 -3.604934446937422710e+00 1.476766305763839993e-01 -3.499183385533930046e+00 1.083635830687368351e+00 1.684029641312893899e+00 -1.351425699375602141e-01 2.395517291712913277e+00 1.644550456449887399e+00 3.556485202452633887e-01 -1.964256955621549172e-01 -2.409558192270714994e+00 -5.904703619936687575e-01
-2.108132708006653200e+00 3.204227243306814743e-01 -2.254787014850758997e-01 -4.806418569635098947e+00 3.378116324908346235e-01 -3.412559023143777015e+00 2.650914131837005971e+00 2.937860154786752886e+00 1.696700483894894695e+00 -2.069873972947913643e+00 1.124000090063878909e+00 -1.633773413284171472e+00 3.818159349270599190e+00 -8.117000822933999327e-02 -1.674306113196643686e+00 -2.570066515428141241e+00 2.535743132587940707e+00 -6.769333595550731664e-01 3.029812874137765455e+00 4.233896332942300722e-01
